digraph Tree {
node [shape=box, style="rounded", color="black", fontname=helvetica] ;
edge [fontname=helvetica] ;
0 [label="armed:r:unarmed <= 0.5\ngini = 0.4\nsamples = 1762\nvalue = [1860, 936]"] ;
1 [label="flee:Not fleeing <= 0.5\ngini = 0.4\nsamples = 1642\nvalue = [1752, 846]"] ;
0 -> 1 [labeldistance=2.5, labelangle=45, headlabel="True"] ;
2 [label="flee:Foot <= 0.5\ngini = 0.5\nsamples = 575\nvalue = [550, 355]"] ;
1 -> 2 ;
3 [label="gini = 0.4\nsamples = 369\nvalue = [388, 186]"] ;
2 -> 3 ;
4 [label="gini = 0.5\nsamples = 206\nvalue = [162, 169]"] ;
2 -> 4 ;
5 [label="body_camera <= 0.5\ngini = 0.4\nsamples = 1067\nvalue = [1202, 491]"] ;
1 -> 5 ;
6 [label="gini = 0.4\nsamples = 940\nvalue = [1069, 414]"] ;
5 -> 6 ;
7 [label="gini = 0.5\nsamples = 127\nvalue = [133, 77]"] ;
5 -> 7 ;
8 [label="flee:Not fleeing <= 0.5\ngini = 0.5\nsamples = 120\nvalue = [108, 90]"] ;
0 -> 8 [labeldistance=2.5, labelangle=-45, headlabel="False"] ;
9 [label="flee:Car <= 0.5\ngini = 0.5\nsamples = 49\nvalue = [35, 46]"] ;
8 -> 9 ;
10 [label="gini = 0.5\nsamples = 25\nvalue = [15, 25]"] ;
9 -> 10 ;
11 [label="gini = 0.5\nsamples = 24\nvalue = [20, 21]"] ;
9 -> 11 ;
12 [label="signs_of_mental_illness <= 0.5\ngini = 0.5\nsamples = 71\nvalue = [73, 44]"] ;
8 -> 12 ;
13 [label="gini = 0.4\nsamples = 47\nvalue = [54, 28]"] ;
12 -> 13 ;
14 [label="gini = 0.5\nsamples = 24\nvalue = [19, 16]"] ;
12 -> 14 ;
}