digraph Tree {
node [shape=box, style="rounded", color="black", fontname=helvetica] ;
edge [fontname=helvetica] ;
0 [label="signs_of_mental_illness <= 0.5\ngini = 0.5\nsamples = 1095\nvalue = [892, 506]"] ;
1 [label="gender:M <= 0.5\ngini = 0.5\nsamples = 839\nvalue = [646, 438]"] ;
0 -> 1 [labeldistance=2.5, labelangle=45, headlabel="True"] ;
2 [label="adult <= 0.5\ngini = 0.3\nsamples = 42\nvalue = [45, 13]"] ;
1 -> 2 ;
3 [label="state:majority_white <= 0.5\ngini = 0.5\nsamples = 20\nvalue = [16, 9]"] ;
2 -> 3 ;
4 [label="threat_level:other <= 0.5\ngini = 0.1\nsamples = 11\nvalue = [13, 1]"] ;
3 -> 4 ;
5 [label="young adult <= 0.5\ngini = 0.3\nsamples = 6\nvalue = [5, 1]"] ;
4 -> 5 ;
6 [label="gini = 0.0\nsamples = 4\nvalue = [4, 0]"] ;
5 -> 6 ;
7 [label="gini = 0.5\nsamples = 2\nvalue = [1, 1]"] ;
5 -> 7 ;
8 [label="gini = 0.0\nsamples = 5\nvalue = [8, 0]"] ;
4 -> 8 ;
9 [label="flee:Not fleeing <= 0.5\ngini = 0.4\nsamples = 9\nvalue = [3, 8]"] ;
3 -> 9 ;
10 [label="gini = 0.4\nsamples = 3\nvalue = [2, 1]"] ;
9 -> 10 ;
11 [label="threat_level:attack <= 0.5\ngini = 0.2\nsamples = 6\nvalue = [1, 7]"] ;
9 -> 11 ;
12 [label="gini = 0.0\nsamples = 1\nvalue = [0, 1]"] ;
11 -> 12 ;
13 [label="gini = 0.2\nsamples = 5\nvalue = [1, 6]"] ;
11 -> 13 ;
14 [label="flee:Foot <= 0.5\ngini = 0.2\nsamples = 22\nvalue = [29, 4]"] ;
2 -> 14 ;
15 [label="flee:Other <= 0.5\ngini = 0.2\nsamples = 21\nvalue = [27, 4]"] ;
14 -> 15 ;
16 [label="flee:Not fleeing <= 0.5\ngini = 0.2\nsamples = 20\nvalue = [26, 4]"] ;
15 -> 16 ;
17 [label="state:majority_white <= 0.5\ngini = 0.2\nsamples = 11\nvalue = [13, 2]"] ;
16 -> 17 ;
18 [label="gini = 0.3\nsamples = 5\nvalue = [4, 1]"] ;
17 -> 18 ;
19 [label="threat_level:attack <= 0.5\ngini = 0.2\nsamples = 6\nvalue = [9, 1]"] ;
17 -> 19 ;
20 [label="gini = 0.0\nsamples = 1\nvalue = [0, 1]"] ;
19 -> 20 ;
21 [label="gini = 0.0\nsamples = 5\nvalue = [9, 0]"] ;
19 -> 21 ;
22 [label="armed:r:gun <= 0.5\ngini = 0.2\nsamples = 9\nvalue = [13, 2]"] ;
16 -> 22 ;
23 [label="gini = 0.4\nsamples = 5\nvalue = [6, 2]"] ;
22 -> 23 ;
24 [label="gini = 0.0\nsamples = 4\nvalue = [7, 0]"] ;
22 -> 24 ;
25 [label="gini = 0.0\nsamples = 1\nvalue = [1, 0]"] ;
15 -> 25 ;
26 [label="gini = 0.0\nsamples = 1\nvalue = [2, 0]"] ;
14 -> 26 ;
27 [label="flee:Foot <= 0.5\ngini = 0.5\nsamples = 797\nvalue = [601, 425]"] ;
1 -> 27 ;
28 [label="child <= 0.5\ngini = 0.5\nsamples = 681\nvalue = [547, 335]"] ;
27 -> 28 ;
29 [label="state:majority_white <= 0.5\ngini = 0.5\nsamples = 678\nvalue = [547, 330]"] ;
28 -> 29 ;
30 [label="body_camera <= 0.5\ngini = 0.4\nsamples = 317\nvalue = [279, 138]"] ;
29 -> 30 ;
31 [label="young adult <= 0.5\ngini = 0.4\nsamples = 284\nvalue = [256, 115]"] ;
30 -> 31 ;
32 [label="adult <= 0.5\ngini = 0.4\nsamples = 241\nvalue = [232, 83]"] ;
31 -> 32 ;
33 [label="state:almost_all_white <= 0.5\ngini = 0.4\nsamples = 79\nvalue = [83, 26]"] ;
32 -> 33 ;
34 [label="armed:r:gun <= 0.5\ngini = 0.3\nsamples = 28\nvalue = [32, 6]"] ;
33 -> 34 ;
35 [label="gini = 0.2\nsamples = 15\nvalue = [17, 2]"] ;
34 -> 35 ;
36 [label="gini = 0.3\nsamples = 13\nvalue = [15, 4]"] ;
34 -> 36 ;
37 [label="threat_level:attack <= 0.5\ngini = 0.4\nsamples = 51\nvalue = [51, 20]"] ;
33 -> 37 ;
38 [label="gini = 0.5\nsamples = 13\nvalue = [8, 11]"] ;
37 -> 38 ;
39 [label="gini = 0.3\nsamples = 38\nvalue = [43, 9]"] ;
37 -> 39 ;
40 [label="state:almost_all_white <= 0.5\ngini = 0.4\nsamples = 162\nvalue = [149, 57]"] ;
32 -> 40 ;
41 [label="flee:Car <= 0.5\ngini = 0.5\nsamples = 63\nvalue = [50, 27]"] ;
40 -> 41 ;
42 [label="gini = 0.5\nsamples = 51\nvalue = [37, 22]"] ;
41 -> 42 ;
43 [label="gini = 0.4\nsamples = 12\nvalue = [13, 5]"] ;
41 -> 43 ;
44 [label="threat_level:attack <= 0.5\ngini = 0.4\nsamples = 99\nvalue = [99, 30]"] ;
40 -> 44 ;
45 [label="gini = 0.1\nsamples = 34\nvalue = [41, 2]"] ;
44 -> 45 ;
46 [label="gini = 0.4\nsamples = 65\nvalue = [58, 28]"] ;
44 -> 46 ;
47 [label="state:almost_all_white <= 0.5\ngini = 0.5\nsamples = 43\nvalue = [24, 32]"] ;
31 -> 47 ;
48 [label="armed:r:unarmed <= 0.5\ngini = 0.5\nsamples = 19\nvalue = [10, 16]"] ;
47 -> 48 ;
49 [label="threat_level:attack <= 0.5\ngini = 0.4\nsamples = 18\nvalue = [8, 16]"] ;
48 -> 49 ;
50 [label="gini = 0.4\nsamples = 5\nvalue = [4, 2]"] ;
49 -> 50 ;
51 [label="gini = 0.3\nsamples = 13\nvalue = [4, 14]"] ;
49 -> 51 ;
52 [label="gini = 0.0\nsamples = 1\nvalue = [2, 0]"] ;
48 -> 52 ;
53 [label="flee:Car <= 0.5\ngini = 0.5\nsamples = 24\nvalue = [14, 16]"] ;
47 -> 53 ;
54 [label="armed:r:gun <= 0.5\ngini = 0.5\nsamples = 16\nvalue = [8, 12]"] ;
53 -> 54 ;
55 [label="gini = 0.5\nsamples = 8\nvalue = [4, 6]"] ;
54 -> 55 ;
56 [label="gini = 0.5\nsamples = 8\nvalue = [4, 6]"] ;
54 -> 56 ;
57 [label="threat_level:other <= 0.5\ngini = 0.5\nsamples = 8\nvalue = [6, 4]"] ;
53 -> 57 ;
58 [label="gini = 0.5\nsamples = 6\nvalue = [3, 4]"] ;
57 -> 58 ;
59 [label="gini = 0.0\nsamples = 2\nvalue = [3, 0]"] ;
57 -> 59 ;
60 [label="flee:Other <= 0.5\ngini = 0.5\nsamples = 33\nvalue = [23, 23]"] ;
30 -> 60 ;
61 [label="threat_level:other <= 0.5\ngini = 0.5\nsamples = 32\nvalue = [22, 23]"] ;
60 -> 61 ;
62 [label="threat_level:attack <= 0.5\ngini = 0.5\nsamples = 25\nvalue = [15, 20]"] ;
61 -> 62 ;
63 [label="gini = 0.4\nsamples = 3\nvalue = [1, 2]"] ;
62 -> 63 ;
64 [label="armed:r:unarmed <= 0.5\ngini = 0.5\nsamples = 22\nvalue = [14, 18]"] ;
62 -> 64 ;
65 [label="gini = 0.5\nsamples = 20\nvalue = [14, 13]"] ;
64 -> 65 ;
66 [label="gini = 0.0\nsamples = 2\nvalue = [0, 5]"] ;
64 -> 66 ;
67 [label="state:almost_all_white <= 0.5\ngini = 0.4\nsamples = 7\nvalue = [7, 3]"] ;
61 -> 67 ;
68 [label="gini = 0.0\nsamples = 1\nvalue = [2, 0]"] ;
67 -> 68 ;
69 [label="young adult <= 0.5\ngini = 0.5\nsamples = 6\nvalue = [5, 3]"] ;
67 -> 69 ;
70 [label="gini = 0.5\nsamples = 4\nvalue = [3, 2]"] ;
69 -> 70 ;
71 [label="gini = 0.4\nsamples = 2\nvalue = [2, 1]"] ;
69 -> 71 ;
72 [label="gini = 0.0\nsamples = 1\nvalue = [1, 0]"] ;
60 -> 72 ;
73 [label="flee:Car <= 0.5\ngini = 0.5\nsamples = 361\nvalue = [268, 192]"] ;
29 -> 73 ;
74 [label="flee:Not fleeing <= 0.5\ngini = 0.5\nsamples = 295\nvalue = [211, 154]"] ;
73 -> 74 ;
75 [label="threat_level:other <= 0.5\ngini = 0.5\nsamples = 34\nvalue = [17, 22]"] ;
74 -> 75 ;
76 [label="flee:Other <= 0.5\ngini = 0.5\nsamples = 25\nvalue = [13, 16]"] ;
75 -> 76 ;
77 [label="armed:r:gun <= 0.5\ngini = 0.4\nsamples = 13\nvalue = [5, 11]"] ;
76 -> 77 ;
78 [label="gini = 0.4\nsamples = 3\nvalue = [3, 1]"] ;
77 -> 78 ;
79 [label="gini = 0.3\nsamples = 10\nvalue = [2, 10]"] ;
77 -> 79 ;
80 [label="young adult <= 0.5\ngini = 0.5\nsamples = 12\nvalue = [8, 5]"] ;
76 -> 80 ;
81 [label="gini = 0.5\nsamples = 9\nvalue = [6, 4]"] ;
80 -> 81 ;
82 [label="gini = 0.4\nsamples = 3\nvalue = [2, 1]"] ;
80 -> 82 ;
83 [label="adult <= 0.5\ngini = 0.5\nsamples = 9\nvalue = [4, 6]"] ;
75 -> 83 ;
84 [label="gini = 0.3\nsamples = 4\nvalue = [1, 4]"] ;
83 -> 84 ;
85 [label="gini = 0.5\nsamples = 5\nvalue = [3, 2]"] ;
83 -> 85 ;
86 [label="armed:r:unarmed <= 0.5\ngini = 0.5\nsamples = 261\nvalue = [194, 132]"] ;
74 -> 86 ;
87 [label="threat_level:other <= 0.5\ngini = 0.5\nsamples = 245\nvalue = [186, 122]"] ;
86 -> 87 ;
88 [label="body_camera <= 0.5\ngini = 0.5\nsamples = 191\nvalue = [140, 95]"] ;
87 -> 88 ;
89 [label="gini = 0.5\nsamples = 169\nvalue = [122, 84]"] ;
88 -> 89 ;
90 [label="gini = 0.5\nsamples = 22\nvalue = [18, 11]"] ;
88 -> 90 ;
91 [label="body_camera <= 0.5\ngini = 0.5\nsamples = 54\nvalue = [46, 27]"] ;
87 -> 91 ;
92 [label="gini = 0.4\nsamples = 48\nvalue = [44, 22]"] ;
91 -> 92 ;
93 [label="gini = 0.4\nsamples = 6\nvalue = [2, 5]"] ;
91 -> 93 ;
94 [label="body_camera <= 0.5\ngini = 0.5\nsamples = 16\nvalue = [8, 10]"] ;
86 -> 94 ;
95 [label="threat_level:other <= 0.5\ngini = 0.5\nsamples = 14\nvalue = [7, 9]"] ;
94 -> 95 ;
96 [label="gini = 0.5\nsamples = 7\nvalue = [3, 5]"] ;
95 -> 96 ;
97 [label="gini = 0.5\nsamples = 7\nvalue = [4, 4]"] ;
95 -> 97 ;
98 [label="gini = 0.5\nsamples = 2\nvalue = [1, 1]"] ;
94 -> 98 ;
99 [label="threat_level:other <= 0.5\ngini = 0.5\nsamples = 66\nvalue = [57, 38]"] ;
73 -> 99 ;
100 [label="armed:r:gun <= 0.5\ngini = 0.5\nsamples = 49\nvalue = [43, 27]"] ;
99 -> 100 ;
101 [label="body_camera <= 0.5\ngini = 0.4\nsamples = 14\nvalue = [16, 5]"] ;
100 -> 101 ;
102 [label="young adult <= 0.5\ngini = 0.4\nsamples = 13\nvalue = [11, 5]"] ;
101 -> 102 ;
103 [label="gini = 0.4\nsamples = 8\nvalue = [8, 3]"] ;
102 -> 103 ;
104 [label="gini = 0.5\nsamples = 5\nvalue = [3, 2]"] ;
102 -> 104 ;
105 [label="gini = 0.0\nsamples = 1\nvalue = [5, 0]"] ;
101 -> 105 ;
106 [label="young adult <= 0.5\ngini = 0.5\nsamples = 35\nvalue = [27, 22]"] ;
100 -> 106 ;
107 [label="body_camera <= 0.5\ngini = 0.5\nsamples = 26\nvalue = [23, 13]"] ;
106 -> 107 ;
108 [label="gini = 0.5\nsamples = 25\nvalue = [23, 12]"] ;
107 -> 108 ;
109 [label="gini = 0.0\nsamples = 1\nvalue = [0, 1]"] ;
107 -> 109 ;
110 [label="body_camera <= 0.5\ngini = 0.4\nsamples = 9\nvalue = [4, 9]"] ;
106 -> 110 ;
111 [label="gini = 0.4\nsamples = 7\nvalue = [3, 8]"] ;
110 -> 111 ;
112 [label="gini = 0.5\nsamples = 2\nvalue = [1, 1]"] ;
110 -> 112 ;
113 [label="adult <= 0.5\ngini = 0.5\nsamples = 17\nvalue = [14, 11]"] ;
99 -> 113 ;
114 [label="young adult <= 0.5\ngini = 0.5\nsamples = 8\nvalue = [5, 7]"] ;
113 -> 114 ;
115 [label="gini = 0.4\nsamples = 3\nvalue = [3, 1]"] ;
114 -> 115 ;
116 [label="gini = 0.4\nsamples = 5\nvalue = [2, 6]"] ;
114 -> 116 ;
117 [label="body_camera <= 0.5\ngini = 0.4\nsamples = 9\nvalue = [9, 4]"] ;
113 -> 117 ;
118 [label="armed:r:gun <= 0.5\ngini = 0.4\nsamples = 8\nvalue = [8, 4]"] ;
117 -> 118 ;
119 [label="gini = 0.5\nsamples = 4\nvalue = [3, 4]"] ;
118 -> 119 ;
120 [label="gini = 0.0\nsamples = 4\nvalue = [5, 0]"] ;
118 -> 120 ;
121 [label="gini = 0.0\nsamples = 1\nvalue = [1, 0]"] ;
117 -> 121 ;
122 [label="gini = 0.0\nsamples = 3\nvalue = [0, 5]"] ;
28 -> 122 ;
123 [label="threat_level:other <= 0.5\ngini = 0.5\nsamples = 116\nvalue = [54, 90]"] ;
27 -> 123 ;
124 [label="young adult <= 0.5\ngini = 0.5\nsamples = 80\nvalue = [37, 63]"] ;
123 -> 124 ;
125 [label="armed:r:gun <= 0.5\ngini = 0.5\nsamples = 53\nvalue = [30, 32]"] ;
124 -> 125 ;
126 [label="armed:r:unarmed <= 0.5\ngini = 0.4\nsamples = 16\nvalue = [5, 12]"] ;
125 -> 126 ;
127 [label="state:majority_white <= 0.5\ngini = 0.4\nsamples = 12\nvalue = [3, 10]"] ;
126 -> 127 ;
128 [label="body_camera <= 0.5\ngini = 0.3\nsamples = 6\nvalue = [1, 5]"] ;
127 -> 128 ;
129 [label="gini = 0.0\nsamples = 5\nvalue = [0, 5]"] ;
128 -> 129 ;
130 [label="gini = 0.0\nsamples = 1\nvalue = [1, 0]"] ;
128 -> 130 ;
131 [label="threat_level:attack <= 0.5\ngini = 0.4\nsamples = 6\nvalue = [2, 5]"] ;
127 -> 131 ;
132 [label="gini = 0.0\nsamples = 1\nvalue = [0, 2]"] ;
131 -> 132 ;
133 [label="gini = 0.5\nsamples = 5\nvalue = [2, 3]"] ;
131 -> 133 ;
134 [label="gini = 0.5\nsamples = 4\nvalue = [2, 2]"] ;
126 -> 134 ;
135 [label="adult <= 0.5\ngini = 0.5\nsamples = 37\nvalue = [25, 20]"] ;
125 -> 135 ;
136 [label="state:majority_white <= 0.5\ngini = 0.2\nsamples = 9\nvalue = [12, 2]"] ;
135 -> 136 ;
137 [label="gini = 0.5\nsamples = 3\nvalue = [2, 2]"] ;
136 -> 137 ;
138 [label="gini = 0.0\nsamples = 6\nvalue = [10, 0]"] ;
136 -> 138 ;
139 [label="state:almost_all_white <= 0.5\ngini = 0.5\nsamples = 28\nvalue = [13, 18]"] ;
135 -> 139 ;
140 [label="body_camera <= 0.5\ngini = 0.5\nsamples = 23\nvalue = [12, 13]"] ;
139 -> 140 ;
141 [label="state:majority_white <= 0.5\ngini = 0.5\nsamples = 22\nvalue = [12, 12]"] ;
140 -> 141 ;
142 [label="gini = 0.3\nsamples = 5\nvalue = [4, 1]"] ;
141 -> 142 ;
143 [label="gini = 0.5\nsamples = 17\nvalue = [8, 11]"] ;
141 -> 143 ;
144 [label="gini = 0.0\nsamples = 1\nvalue = [0, 1]"] ;
140 -> 144 ;
145 [label="gini = 0.3\nsamples = 5\nvalue = [1, 5]"] ;
139 -> 145 ;
146 [label="state:almost_all_white <= 0.5\ngini = 0.3\nsamples = 27\nvalue = [7, 31]"] ;
124 -> 146 ;
147 [label="state:majority_white <= 0.5\ngini = 0.4\nsamples = 17\nvalue = [7, 15]"] ;
146 -> 147 ;
148 [label="gini = 0.3\nsamples = 5\nvalue = [1, 5]"] ;
147 -> 148 ;
149 [label="threat_level:attack <= 0.5\ngini = 0.5\nsamples = 12\nvalue = [6, 10]"] ;
147 -> 149 ;
150 [label="gini = 0.3\nsamples = 4\nvalue = [1, 4]"] ;
149 -> 150 ;
151 [label="armed:r:unarmed <= 0.5\ngini = 0.5\nsamples = 8\nvalue = [5, 6]"] ;
149 -> 151 ;
152 [label="armed:r:gun <= 0.5\ngini = 0.5\nsamples = 6\nvalue = [4, 5]"] ;
151 -> 152 ;
153 [label="gini = 0.0\nsamples = 1\nvalue = [0, 1]"] ;
152 -> 153 ;
154 [label="gini = 0.5\nsamples = 5\nvalue = [4, 4]"] ;
152 -> 154 ;
155 [label="gini = 0.5\nsamples = 2\nvalue = [1, 1]"] ;
151 -> 155 ;
156 [label="gini = 0.0\nsamples = 10\nvalue = [0, 16]"] ;
146 -> 156 ;
157 [label="young adult <= 0.5\ngini = 0.5\nsamples = 36\nvalue = [17, 27]"] ;
123 -> 157 ;
158 [label="adult <= 0.5\ngini = 0.5\nsamples = 27\nvalue = [14, 18]"] ;
157 -> 158 ;
159 [label="gini = 0.0\nsamples = 5\nvalue = [0, 7]"] ;
158 -> 159 ;
160 [label="armed:r:unarmed <= 0.5\ngini = 0.5\nsamples = 22\nvalue = [14, 11]"] ;
158 -> 160 ;
161 [label="state:almost_all_white <= 0.5\ngini = 0.5\nsamples = 19\nvalue = [13, 7]"] ;
160 -> 161 ;
162 [label="state:majority_white <= 0.5\ngini = 0.5\nsamples = 15\nvalue = [10, 6]"] ;
161 -> 162 ;
163 [label="gini = 0.0\nsamples = 2\nvalue = [2, 0]"] ;
162 -> 163 ;
164 [label="armed:r:gun <= 0.5\ngini = 0.5\nsamples = 13\nvalue = [8, 6]"] ;
162 -> 164 ;
165 [label="gini = 0.0\nsamples = 4\nvalue = [4, 0]"] ;
164 -> 165 ;
166 [label="gini = 0.5\nsamples = 9\nvalue = [4, 6]"] ;
164 -> 166 ;
167 [label="gini = 0.4\nsamples = 4\nvalue = [3, 1]"] ;
161 -> 167 ;
168 [label="gini = 0.3\nsamples = 3\nvalue = [1, 4]"] ;
160 -> 168 ;
169 [label="state:almost_all_white <= 0.5\ngini = 0.4\nsamples = 9\nvalue = [3, 9]"] ;
157 -> 169 ;
170 [label="gini = 0.3\nsamples = 5\nvalue = [1, 5]"] ;
169 -> 170 ;
171 [label="gini = 0.4\nsamples = 4\nvalue = [2, 4]"] ;
169 -> 171 ;
172 [label="armed:r:gun <= 0.5\ngini = 0.3\nsamples = 256\nvalue = [246, 68]"] ;
0 -> 172 [labeldistance=2.5, labelangle=-45, headlabel="False"] ;
173 [label="young adult <= 0.5\ngini = 0.4\nsamples = 126\nvalue = [113, 38]"] ;
172 -> 173 ;
174 [label="adult <= 0.5\ngini = 0.3\nsamples = 102\nvalue = [98, 27]"] ;
173 -> 174 ;
175 [label="state:majority_white <= 0.5\ngini = 0.3\nsamples = 32\nvalue = [34, 6]"] ;
174 -> 175 ;
176 [label="body_camera <= 0.5\ngini = 0.1\nsamples = 12\nvalue = [15, 1]"] ;
175 -> 176 ;
177 [label="gini = 0.0\nsamples = 8\nvalue = [10, 0]"] ;
176 -> 177 ;
178 [label="gini = 0.3\nsamples = 4\nvalue = [5, 1]"] ;
176 -> 178 ;
179 [label="body_camera <= 0.5\ngini = 0.3\nsamples = 20\nvalue = [19, 5]"] ;
175 -> 179 ;
180 [label="threat_level:other <= 0.5\ngini = 0.3\nsamples = 15\nvalue = [14, 4]"] ;
179 -> 180 ;
181 [label="flee:Not fleeing <= 0.5\ngini = 0.4\nsamples = 7\nvalue = [6, 2]"] ;
180 -> 181 ;
182 [label="gini = 0.4\nsamples = 3\nvalue = [2, 1]"] ;
181 -> 182 ;
183 [label="gini = 0.3\nsamples = 4\nvalue = [4, 1]"] ;
181 -> 183 ;
184 [label="gini = 0.3\nsamples = 8\nvalue = [8, 2]"] ;
180 -> 184 ;
185 [label="gini = 0.3\nsamples = 5\nvalue = [5, 1]"] ;
179 -> 185 ;
186 [label="armed:r:unarmed <= 0.5\ngini = 0.4\nsamples = 70\nvalue = [64, 21]"] ;
174 -> 186 ;
187 [label="state:almost_all_white <= 0.5\ngini = 0.4\nsamples = 63\nvalue = [59, 18]"] ;
186 -> 187 ;
188 [label="body_camera <= 0.5\ngini = 0.3\nsamples = 46\nvalue = [44, 8]"] ;
187 -> 188 ;
189 [label="flee:Not fleeing <= 0.5\ngini = 0.2\nsamples = 36\nvalue = [35, 4]"] ;
188 -> 189 ;
190 [label="gini = 0.0\nsamples = 6\nvalue = [6, 0]"] ;
189 -> 190 ;
191 [label="gender:M <= 0.5\ngini = 0.2\nsamples = 30\nvalue = [29, 4]"] ;
189 -> 191 ;
192 [label="gini = 0.5\nsamples = 2\nvalue = [1, 1]"] ;
191 -> 192 ;
193 [label="threat_level:other <= 0.5\ngini = 0.2\nsamples = 28\nvalue = [28, 3]"] ;
191 -> 193 ;
194 [label="gini = 0.2\nsamples = 15\nvalue = [15, 2]"] ;
193 -> 194 ;
195 [label="gini = 0.1\nsamples = 13\nvalue = [13, 1]"] ;
193 -> 195 ;
196 [label="threat_level:other <= 0.5\ngini = 0.4\nsamples = 10\nvalue = [9, 4]"] ;
188 -> 196 ;
197 [label="gini = 0.4\nsamples = 5\nvalue = [4, 2]"] ;
196 -> 197 ;
198 [label="gini = 0.4\nsamples = 5\nvalue = [5, 2]"] ;
196 -> 198 ;
199 [label="flee:Car <= 0.5\ngini = 0.5\nsamples = 17\nvalue = [15, 10]"] ;
187 -> 199 ;
200 [label="flee:Not fleeing <= 0.5\ngini = 0.5\nsamples = 16\nvalue = [15, 9]"] ;
199 -> 200 ;
201 [label="gini = 0.0\nsamples = 2\nvalue = [3, 0]"] ;
200 -> 201 ;
202 [label="gender:M <= 0.5\ngini = 0.5\nsamples = 14\nvalue = [12, 9]"] ;
200 -> 202 ;
203 [label="gini = 0.0\nsamples = 1\nvalue = [2, 0]"] ;
202 -> 203 ;
204 [label="body_camera <= 0.5\ngini = 0.5\nsamples = 13\nvalue = [10, 9]"] ;
202 -> 204 ;
205 [label="gini = 0.5\nsamples = 12\nvalue = [10, 8]"] ;
204 -> 205 ;
206 [label="gini = 0.0\nsamples = 1\nvalue = [0, 1]"] ;
204 -> 206 ;
207 [label="gini = 0.0\nsamples = 1\nvalue = [0, 1]"] ;
199 -> 207 ;
208 [label="state:almost_all_white <= 0.5\ngini = 0.5\nsamples = 7\nvalue = [5, 3]"] ;
186 -> 208 ;
209 [label="gini = 0.5\nsamples = 5\nvalue = [3, 3]"] ;
208 -> 209 ;
210 [label="gini = 0.0\nsamples = 2\nvalue = [2, 0]"] ;
208 -> 210 ;
211 [label="threat_level:attack <= 0.5\ngini = 0.5\nsamples = 24\nvalue = [15, 11]"] ;
173 -> 211 ;
212 [label="flee:Other <= 0.5\ngini = 0.4\nsamples = 13\nvalue = [9, 4]"] ;
211 -> 212 ;
213 [label="state:almost_all_white <= 0.5\ngini = 0.4\nsamples = 12\nvalue = [8, 4]"] ;
212 -> 213 ;
214 [label="gini = 0.5\nsamples = 5\nvalue = [3, 2]"] ;
213 -> 214 ;
215 [label="gender:M <= 0.5\ngini = 0.4\nsamples = 7\nvalue = [5, 2]"] ;
213 -> 215 ;
216 [label="gini = 0.0\nsamples = 1\nvalue = [1, 0]"] ;
215 -> 216 ;
217 [label="flee:Not fleeing <= 0.5\ngini = 0.4\nsamples = 6\nvalue = [4, 2]"] ;
215 -> 217 ;
218 [label="gini = 0.0\nsamples = 1\nvalue = [0, 1]"] ;
217 -> 218 ;
219 [label="gini = 0.3\nsamples = 5\nvalue = [4, 1]"] ;
217 -> 219 ;
220 [label="gini = 0.0\nsamples = 1\nvalue = [1, 0]"] ;
212 -> 220 ;
221 [label="state:almost_all_white <= 0.5\ngini = 0.5\nsamples = 11\nvalue = [6, 7]"] ;
211 -> 221 ;
222 [label="flee:Not fleeing <= 0.5\ngini = 0.5\nsamples = 8\nvalue = [5, 5]"] ;
221 -> 222 ;
223 [label="gini = 0.0\nsamples = 1\nvalue = [0, 1]"] ;
222 -> 223 ;
224 [label="body_camera <= 0.5\ngini = 0.5\nsamples = 7\nvalue = [5, 4]"] ;
222 -> 224 ;
225 [label="state:majority_white <= 0.5\ngini = 0.5\nsamples = 6\nvalue = [5, 3]"] ;
224 -> 225 ;
226 [label="gini = 0.0\nsamples = 1\nvalue = [1, 0]"] ;
225 -> 226 ;
227 [label="gini = 0.5\nsamples = 5\nvalue = [4, 3]"] ;
225 -> 227 ;
228 [label="gini = 0.0\nsamples = 1\nvalue = [0, 1]"] ;
224 -> 228 ;
229 [label="gini = 0.4\nsamples = 3\nvalue = [1, 2]"] ;
221 -> 229 ;
230 [label="flee:Car <= 0.5\ngini = 0.3\nsamples = 130\nvalue = [133, 30]"] ;
172 -> 230 ;
231 [label="young adult <= 0.5\ngini = 0.2\nsamples = 120\nvalue = [129, 22]"] ;
230 -> 231 ;
232 [label="flee:Not fleeing <= 0.5\ngini = 0.2\nsamples = 103\nvalue = [112, 15]"] ;
231 -> 232 ;
233 [label="state:almost_all_white <= 0.5\ngini = 0.4\nsamples = 10\nvalue = [8, 3]"] ;
232 -> 233 ;
234 [label="threat_level:other <= 0.5\ngini = 0.3\nsamples = 8\nvalue = [7, 2]"] ;
233 -> 234 ;
235 [label="adult <= 0.5\ngini = 0.4\nsamples = 7\nvalue = [6, 2]"] ;
234 -> 235 ;
236 [label="gini = 0.0\nsamples = 3\nvalue = [3, 0]"] ;
235 -> 236 ;
237 [label="gini = 0.5\nsamples = 4\nvalue = [3, 2]"] ;
235 -> 237 ;
238 [label="gini = 0.0\nsamples = 1\nvalue = [1, 0]"] ;
234 -> 238 ;
239 [label="gini = 0.5\nsamples = 2\nvalue = [1, 1]"] ;
233 -> 239 ;
240 [label="body_camera <= 0.5\ngini = 0.2\nsamples = 93\nvalue = [104, 12]"] ;
232 -> 240 ;
241 [label="gender:M <= 0.5\ngini = 0.2\nsamples = 83\nvalue = [96, 9]"] ;
240 -> 241 ;
242 [label="state:almost_all_white <= 0.5\ngini = 0.2\nsamples = 10\nvalue = [12, 2]"] ;
241 -> 242 ;
243 [label="adult <= 0.5\ngini = 0.3\nsamples = 9\nvalue = [9, 2]"] ;
242 -> 243 ;
244 [label="gini = 0.0\nsamples = 3\nvalue = [4, 0]"] ;
243 -> 244 ;
245 [label="state:majority_white <= 0.5\ngini = 0.4\nsamples = 6\nvalue = [5, 2]"] ;
243 -> 245 ;
246 [label="gini = 0.0\nsamples = 4\nvalue = [4, 0]"] ;
245 -> 246 ;
247 [label="gini = 0.4\nsamples = 2\nvalue = [1, 2]"] ;
245 -> 247 ;
248 [label="gini = 0.0\nsamples = 1\nvalue = [3, 0]"] ;
242 -> 248 ;
249 [label="threat_level:other <= 0.5\ngini = 0.1\nsamples = 73\nvalue = [84, 7]"] ;
241 -> 249 ;
250 [label="threat_level:attack <= 0.5\ngini = 0.2\nsamples = 57\nvalue = [64, 6]"] ;
249 -> 250 ;
251 [label="gini = 0.0\nsamples = 2\nvalue = [3, 0]"] ;
250 -> 251 ;
252 [label="state:almost_all_white <= 0.5\ngini = 0.2\nsamples = 55\nvalue = [61, 6]"] ;
250 -> 252 ;
253 [label="gini = 0.2\nsamples = 38\nvalue = [43, 4]"] ;
252 -> 253 ;
254 [label="gini = 0.2\nsamples = 17\nvalue = [18, 2]"] ;
252 -> 254 ;
255 [label="state:majority_white <= 0.5\ngini = 0.1\nsamples = 16\nvalue = [20, 1]"] ;
249 -> 255 ;
256 [label="adult <= 0.5\ngini = 0.1\nsamples = 11\nvalue = [13, 1]"] ;
255 -> 256 ;
257 [label="gini = 0.0\nsamples = 6\nvalue = [8, 0]"] ;
256 -> 257 ;
258 [label="gini = 0.3\nsamples = 5\nvalue = [5, 1]"] ;
256 -> 258 ;
259 [label="gini = 0.0\nsamples = 5\nvalue = [7, 0]"] ;
255 -> 259 ;
260 [label="adult <= 0.5\ngini = 0.4\nsamples = 10\nvalue = [8, 3]"] ;
240 -> 260 ;
261 [label="gini = 0.0\nsamples = 4\nvalue = [5, 0]"] ;
260 -> 261 ;
262 [label="state:majority_white <= 0.5\ngini = 0.5\nsamples = 6\nvalue = [3, 3]"] ;
260 -> 262 ;
263 [label="gini = 0.0\nsamples = 1\nvalue = [1, 0]"] ;
262 -> 263 ;
264 [label="gini = 0.5\nsamples = 5\nvalue = [2, 3]"] ;
262 -> 264 ;
265 [label="state:majority_white <= 0.5\ngini = 0.4\nsamples = 17\nvalue = [17, 7]"] ;
231 -> 265 ;
266 [label="threat_level:attack <= 0.5\ngini = 0.4\nsamples = 7\nvalue = [6, 3]"] ;
265 -> 266 ;
267 [label="gini = 0.5\nsamples = 2\nvalue = [1, 1]"] ;
266 -> 267 ;
268 [label="gini = 0.4\nsamples = 5\nvalue = [5, 2]"] ;
266 -> 268 ;
269 [label="body_camera <= 0.5\ngini = 0.4\nsamples = 10\nvalue = [11, 4]"] ;
265 -> 269 ;
270 [label="threat_level:other <= 0.5\ngini = 0.3\nsamples = 9\nvalue = [11, 3]"] ;
269 -> 270 ;
271 [label="gini = 0.4\nsamples = 7\nvalue = [9, 3]"] ;
270 -> 271 ;
272 [label="gini = 0.0\nsamples = 2\nvalue = [2, 0]"] ;
270 -> 272 ;
273 [label="gini = 0.0\nsamples = 1\nvalue = [0, 1]"] ;
269 -> 273 ;
274 [label="threat_level:other <= 0.5\ngini = 0.4\nsamples = 10\nvalue = [4, 8]"] ;
230 -> 274 ;
275 [label="body_camera <= 0.5\ngini = 0.5\nsamples = 9\nvalue = [4, 7]"] ;
274 -> 275 ;
276 [label="young adult <= 0.5\ngini = 0.5\nsamples = 8\nvalue = [4, 5]"] ;
275 -> 276 ;
277 [label="state:almost_all_white <= 0.5\ngini = 0.5\nsamples = 7\nvalue = [3, 5]"] ;
276 -> 277 ;
278 [label="gini = 0.4\nsamples = 5\nvalue = [2, 4]"] ;
277 -> 278 ;
279 [label="gini = 0.5\nsamples = 2\nvalue = [1, 1]"] ;
277 -> 279 ;
280 [label="gini = 0.0\nsamples = 1\nvalue = [1, 0]"] ;
276 -> 280 ;
281 [label="gini = 0.0\nsamples = 1\nvalue = [0, 2]"] ;
275 -> 281 ;
282 [label="gini = 0.0\nsamples = 1\nvalue = [0, 1]"] ;
274 -> 282 ;
}