digraph Tree {
node [shape=box, style="rounded", color="black", fontname=helvetica] ;
edge [fontname=helvetica] ;
0 [label="signs_of_mental_illness <= 0.5\ngini = 0.5\nsamples = 1095\nvalue = [892, 506]"] ;
1 [label="state:almost_all_white <= 0.5\ngini = 0.5\nsamples = 839\nvalue = [646, 438]"] ;
0 -> 1 [labeldistance=2.5, labelangle=45, headlabel="True"] ;
2 [label="body_camera <= 0.5\ngini = 0.5\nsamples = 610\nvalue = [447, 329]"] ;
1 -> 2 ;
3 [label="young adult <= 0.5\ngini = 0.5\nsamples = 538\nvalue = [404, 276]"] ;
2 -> 3 ;
4 [label="flee:Other <= 0.5\ngini = 0.4\nsamples = 425\nvalue = [353, 181]"] ;
3 -> 4 ;
5 [label="flee:Foot <= 0.5\ngini = 0.4\nsamples = 414\nvalue = [343, 178]"] ;
4 -> 5 ;
6 [label="threat_level:attack <= 0.5\ngini = 0.4\nsamples = 354\nvalue = [305, 147]"] ;
5 -> 6 ;
7 [label="armed:r:unarmed <= 0.5\ngini = 0.4\nsamples = 99\nvalue = [97, 35]"] ;
6 -> 7 ;
8 [label="threat_level:other <= 0.5\ngini = 0.4\nsamples = 86\nvalue = [90, 28]"] ;
7 -> 8 ;
9 [label="winter <= 0.5\ngini = 0.1\nsamples = 10\nvalue = [15, 1]"] ;
8 -> 9 ;
10 [label="gini = 0.2\nsamples = 6\nvalue = [8, 1]"] ;
9 -> 10 ;
11 [label="gini = 0.0\nsamples = 4\nvalue = [7, 0]"] ;
9 -> 11 ;
12 [label="winter <= 0.5\ngini = 0.4\nsamples = 76\nvalue = [75, 27]"] ;
8 -> 12 ;
13 [label="gini = 0.4\nsamples = 55\nvalue = [56, 19]"] ;
12 -> 13 ;
14 [label="gini = 0.4\nsamples = 21\nvalue = [19, 8]"] ;
12 -> 14 ;
15 [label="winter <= 0.5\ngini = 0.5\nsamples = 13\nvalue = [7, 7]"] ;
7 -> 15 ;
16 [label="flee:Not fleeing <= 0.5\ngini = 0.5\nsamples = 12\nvalue = [6, 7]"] ;
15 -> 16 ;
17 [label="gini = 0.0\nsamples = 2\nvalue = [0, 2]"] ;
16 -> 17 ;
18 [label="gini = 0.5\nsamples = 10\nvalue = [6, 5]"] ;
16 -> 18 ;
19 [label="gini = 0.0\nsamples = 1\nvalue = [1, 0]"] ;
15 -> 19 ;
20 [label="winter <= 0.5\ngini = 0.5\nsamples = 255\nvalue = [208, 112]"] ;
6 -> 20 ;
21 [label="child <= 0.5\ngini = 0.4\nsamples = 188\nvalue = [157, 76]"] ;
20 -> 21 ;
22 [label="state:majority_white <= 0.5\ngini = 0.4\nsamples = 187\nvalue = [157, 75]"] ;
21 -> 22 ;
23 [label="gini = 0.5\nsamples = 41\nvalue = [30, 19]"] ;
22 -> 23 ;
24 [label="gini = 0.4\nsamples = 146\nvalue = [127, 56]"] ;
22 -> 24 ;
25 [label="gini = 0.0\nsamples = 1\nvalue = [0, 1]"] ;
21 -> 25 ;
26 [label="armed:r:unarmed <= 0.5\ngini = 0.5\nsamples = 67\nvalue = [51, 36]"] ;
20 -> 26 ;
27 [label="gender:M <= 0.5\ngini = 0.5\nsamples = 63\nvalue = [49, 34]"] ;
26 -> 27 ;
28 [label="gini = 0.5\nsamples = 6\nvalue = [4, 5]"] ;
27 -> 28 ;
29 [label="gini = 0.5\nsamples = 57\nvalue = [45, 29]"] ;
27 -> 29 ;
30 [label="gini = 0.5\nsamples = 4\nvalue = [2, 2]"] ;
26 -> 30 ;
31 [label="winter <= 0.5\ngini = 0.5\nsamples = 60\nvalue = [38, 31]"] ;
5 -> 31 ;
32 [label="gender:M <= 0.5\ngini = 0.5\nsamples = 42\nvalue = [25, 24]"] ;
31 -> 32 ;
33 [label="gini = 0.0\nsamples = 1\nvalue = [2, 0]"] ;
32 -> 33 ;
34 [label="state:majority_white <= 0.5\ngini = 0.5\nsamples = 41\nvalue = [23, 24]"] ;
32 -> 34 ;
35 [label="summer <= 0.5\ngini = 0.5\nsamples = 8\nvalue = [4, 4]"] ;
34 -> 35 ;
36 [label="gini = 0.3\nsamples = 5\nvalue = [4, 1]"] ;
35 -> 36 ;
37 [label="gini = 0.0\nsamples = 3\nvalue = [0, 3]"] ;
35 -> 37 ;
38 [label="fall <= 0.5\ngini = 0.5\nsamples = 33\nvalue = [19, 20]"] ;
34 -> 38 ;
39 [label="gini = 0.5\nsamples = 26\nvalue = [13, 16]"] ;
38 -> 39 ;
40 [label="gini = 0.5\nsamples = 7\nvalue = [6, 4]"] ;
38 -> 40 ;
41 [label="armed:r:gun <= 0.5\ngini = 0.5\nsamples = 18\nvalue = [13, 7]"] ;
31 -> 41 ;
42 [label="gini = 0.4\nsamples = 4\nvalue = [1, 3]"] ;
41 -> 42 ;
43 [label="threat_level:attack <= 0.5\ngini = 0.4\nsamples = 14\nvalue = [12, 4]"] ;
41 -> 43 ;
44 [label="state:majority_white <= 0.5\ngini = 0.4\nsamples = 6\nvalue = [4, 2]"] ;
43 -> 44 ;
45 [label="gini = 0.0\nsamples = 1\nvalue = [1, 0]"] ;
44 -> 45 ;
46 [label="gini = 0.5\nsamples = 5\nvalue = [3, 2]"] ;
44 -> 46 ;
47 [label="state:majority_white <= 0.5\ngini = 0.3\nsamples = 8\nvalue = [8, 2]"] ;
43 -> 47 ;
48 [label="gini = 0.0\nsamples = 2\nvalue = [2, 0]"] ;
47 -> 48 ;
49 [label="gini = 0.4\nsamples = 6\nvalue = [6, 2]"] ;
47 -> 49 ;
50 [label="winter <= 0.5\ngini = 0.4\nsamples = 11\nvalue = [10, 3]"] ;
4 -> 50 ;
51 [label="threat_level:other <= 0.5\ngini = 0.3\nsamples = 9\nvalue = [9, 2]"] ;
50 -> 51 ;
52 [label="fall <= 0.5\ngini = 0.4\nsamples = 7\nvalue = [6, 2]"] ;
51 -> 52 ;
53 [label="gini = 0.4\nsamples = 5\nvalue = [4, 2]"] ;
52 -> 53 ;
54 [label="gini = 0.0\nsamples = 2\nvalue = [2, 0]"] ;
52 -> 54 ;
55 [label="gini = 0.0\nsamples = 2\nvalue = [3, 0]"] ;
51 -> 55 ;
56 [label="gini = 0.5\nsamples = 2\nvalue = [1, 1]"] ;
50 -> 56 ;
57 [label="armed:r:gun <= 0.5\ngini = 0.5\nsamples = 113\nvalue = [51, 95]"] ;
3 -> 57 ;
58 [label="winter <= 0.5\ngini = 0.5\nsamples = 45\nvalue = [27, 29]"] ;
57 -> 58 ;
59 [label="armed:r:unarmed <= 0.5\ngini = 0.5\nsamples = 36\nvalue = [22, 22]"] ;
58 -> 59 ;
60 [label="summer <= 0.5\ngini = 0.5\nsamples = 29\nvalue = [17, 18]"] ;
59 -> 60 ;
61 [label="threat_level:attack <= 0.5\ngini = 0.5\nsamples = 20\nvalue = [12, 10]"] ;
60 -> 61 ;
62 [label="flee:Foot <= 0.5\ngini = 0.5\nsamples = 7\nvalue = [4, 4]"] ;
61 -> 62 ;
63 [label="gini = 0.5\nsamples = 6\nvalue = [4, 3]"] ;
62 -> 63 ;
64 [label="gini = 0.0\nsamples = 1\nvalue = [0, 1]"] ;
62 -> 64 ;
65 [label="state:majority_white <= 0.5\ngini = 0.5\nsamples = 13\nvalue = [8, 6]"] ;
61 -> 65 ;
66 [label="gini = 0.4\nsamples = 6\nvalue = [2, 4]"] ;
65 -> 66 ;
67 [label="gini = 0.4\nsamples = 7\nvalue = [6, 2]"] ;
65 -> 67 ;
68 [label="threat_level:attack <= 0.5\ngini = 0.5\nsamples = 9\nvalue = [5, 8]"] ;
60 -> 68 ;
69 [label="gini = 0.5\nsamples = 5\nvalue = [4, 5]"] ;
68 -> 69 ;
70 [label="gini = 0.4\nsamples = 4\nvalue = [1, 3]"] ;
68 -> 70 ;
71 [label="state:majority_white <= 0.5\ngini = 0.5\nsamples = 7\nvalue = [5, 4]"] ;
59 -> 71 ;
72 [label="gini = 0.0\nsamples = 2\nvalue = [3, 0]"] ;
71 -> 72 ;
73 [label="gini = 0.4\nsamples = 5\nvalue = [2, 4]"] ;
71 -> 73 ;
74 [label="flee:Car <= 0.5\ngini = 0.5\nsamples = 9\nvalue = [5, 7]"] ;
58 -> 74 ;
75 [label="gini = 0.4\nsamples = 5\nvalue = [2, 5]"] ;
74 -> 75 ;
76 [label="gini = 0.5\nsamples = 4\nvalue = [3, 2]"] ;
74 -> 76 ;
77 [label="state:majority_white <= 0.5\ngini = 0.4\nsamples = 68\nvalue = [24, 66]"] ;
57 -> 77 ;
78 [label="winter <= 0.5\ngini = 0.1\nsamples = 14\nvalue = [1, 18]"] ;
77 -> 78 ;
79 [label="flee:Foot <= 0.5\ngini = 0.2\nsamples = 8\nvalue = [1, 10]"] ;
78 -> 79 ;
80 [label="fall <= 0.5\ngini = 0.2\nsamples = 6\nvalue = [1, 8]"] ;
79 -> 80 ;
81 [label="gini = 0.0\nsamples = 3\nvalue = [0, 6]"] ;
80 -> 81 ;
82 [label="gini = 0.4\nsamples = 3\nvalue = [1, 2]"] ;
80 -> 82 ;
83 [label="gini = 0.0\nsamples = 2\nvalue = [0, 2]"] ;
79 -> 83 ;
84 [label="gini = 0.0\nsamples = 6\nvalue = [0, 8]"] ;
78 -> 84 ;
85 [label="flee:Car <= 0.5\ngini = 0.4\nsamples = 54\nvalue = [23, 48]"] ;
77 -> 85 ;
86 [label="threat_level:attack <= 0.5\ngini = 0.4\nsamples = 47\nvalue = [20, 40]"] ;
85 -> 86 ;
87 [label="flee:Not fleeing <= 0.5\ngini = 0.3\nsamples = 13\nvalue = [4, 14]"] ;
86 -> 87 ;
88 [label="gini = 0.0\nsamples = 5\nvalue = [0, 7]"] ;
87 -> 88 ;
89 [label="summer <= 0.5\ngini = 0.5\nsamples = 8\nvalue = [4, 7]"] ;
87 -> 89 ;
90 [label="gini = 0.5\nsamples = 6\nvalue = [3, 5]"] ;
89 -> 90 ;
91 [label="gini = 0.4\nsamples = 2\nvalue = [1, 2]"] ;
89 -> 91 ;
92 [label="gender:M <= 0.5\ngini = 0.5\nsamples = 34\nvalue = [16, 26]"] ;
86 -> 92 ;
93 [label="gini = 0.0\nsamples = 2\nvalue = [0, 2]"] ;
92 -> 93 ;
94 [label="flee:Foot <= 0.5\ngini = 0.5\nsamples = 32\nvalue = [16, 24]"] ;
92 -> 94 ;
95 [label="gini = 0.5\nsamples = 28\nvalue = [12, 22]"] ;
94 -> 95 ;
96 [label="gini = 0.4\nsamples = 4\nvalue = [4, 2]"] ;
94 -> 96 ;
97 [label="winter <= 0.5\ngini = 0.4\nsamples = 7\nvalue = [3, 8]"] ;
85 -> 97 ;
98 [label="summer <= 0.5\ngini = 0.4\nsamples = 6\nvalue = [3, 6]"] ;
97 -> 98 ;
99 [label="gini = 0.5\nsamples = 4\nvalue = [3, 2]"] ;
98 -> 99 ;
100 [label="gini = 0.0\nsamples = 2\nvalue = [0, 4]"] ;
98 -> 100 ;
101 [label="gini = 0.0\nsamples = 1\nvalue = [0, 2]"] ;
97 -> 101 ;
102 [label="child <= 0.5\ngini = 0.5\nsamples = 72\nvalue = [43, 53]"] ;
2 -> 102 ;
103 [label="winter <= 0.5\ngini = 0.5\nsamples = 71\nvalue = [43, 50]"] ;
102 -> 103 ;
104 [label="flee:Foot <= 0.5\ngini = 0.5\nsamples = 53\nvalue = [35, 33]"] ;
103 -> 104 ;
105 [label="flee:Car <= 0.5\ngini = 0.5\nsamples = 48\nvalue = [32, 31]"] ;
104 -> 105 ;
106 [label="threat_level:attack <= 0.5\ngini = 0.5\nsamples = 41\nvalue = [24, 27]"] ;
105 -> 106 ;
107 [label="armed:r:gun <= 0.5\ngini = 0.3\nsamples = 10\nvalue = [3, 11]"] ;
106 -> 107 ;
108 [label="gini = 0.2\nsamples = 5\nvalue = [1, 7]"] ;
107 -> 108 ;
109 [label="gini = 0.4\nsamples = 5\nvalue = [2, 4]"] ;
107 -> 109 ;
110 [label="summer <= 0.5\ngini = 0.5\nsamples = 31\nvalue = [21, 16]"] ;
106 -> 110 ;
111 [label="armed:r:unarmed <= 0.5\ngini = 0.5\nsamples = 22\nvalue = [15, 11]"] ;
110 -> 111 ;
112 [label="gini = 0.5\nsamples = 21\nvalue = [15, 10]"] ;
111 -> 112 ;
113 [label="gini = 0.0\nsamples = 1\nvalue = [0, 1]"] ;
111 -> 113 ;
114 [label="state:majority_white <= 0.5\ngini = 0.5\nsamples = 9\nvalue = [6, 5]"] ;
110 -> 114 ;
115 [label="gini = 0.4\nsamples = 3\nvalue = [1, 3]"] ;
114 -> 115 ;
116 [label="gini = 0.4\nsamples = 6\nvalue = [5, 2]"] ;
114 -> 116 ;
117 [label="state:majority_white <= 0.5\ngini = 0.4\nsamples = 7\nvalue = [8, 4]"] ;
105 -> 117 ;
118 [label="gini = 0.0\nsamples = 2\nvalue = [0, 2]"] ;
117 -> 118 ;
119 [label="gini = 0.3\nsamples = 5\nvalue = [8, 2]"] ;
117 -> 119 ;
120 [label="gini = 0.5\nsamples = 5\nvalue = [3, 2]"] ;
104 -> 120 ;
121 [label="flee:Not fleeing <= 0.5\ngini = 0.4\nsamples = 18\nvalue = [8, 17]"] ;
103 -> 121 ;
122 [label="gini = 0.0\nsamples = 9\nvalue = [0, 14]"] ;
121 -> 122 ;
123 [label="state:majority_white <= 0.5\ngini = 0.4\nsamples = 9\nvalue = [8, 3]"] ;
121 -> 123 ;
124 [label="gini = 0.0\nsamples = 1\nvalue = [2, 0]"] ;
123 -> 124 ;
125 [label="threat_level:attack <= 0.5\ngini = 0.4\nsamples = 8\nvalue = [6, 3]"] ;
123 -> 125 ;
126 [label="gini = 0.5\nsamples = 4\nvalue = [2, 2]"] ;
125 -> 126 ;
127 [label="gini = 0.3\nsamples = 4\nvalue = [4, 1]"] ;
125 -> 127 ;
128 [label="gini = 0.0\nsamples = 1\nvalue = [0, 3]"] ;
102 -> 128 ;
129 [label="flee:Foot <= 0.5\ngini = 0.5\nsamples = 229\nvalue = [199, 109]"] ;
1 -> 129 ;
130 [label="gender:M <= 0.5\ngini = 0.4\nsamples = 201\nvalue = [191, 79]"] ;
129 -> 130 ;
131 [label="gini = 0.0\nsamples = 9\nvalue = [13, 0]"] ;
130 -> 131 ;
132 [label="armed:r:unarmed <= 0.5\ngini = 0.4\nsamples = 192\nvalue = [178, 79]"] ;
130 -> 132 ;
133 [label="winter <= 0.5\ngini = 0.4\nsamples = 183\nvalue = [169, 73]"] ;
132 -> 133 ;
134 [label="flee:Not fleeing <= 0.5\ngini = 0.4\nsamples = 136\nvalue = [127, 51]"] ;
133 -> 134 ;
135 [label="flee:Other <= 0.5\ngini = 0.4\nsamples = 40\nvalue = [38, 15]"] ;
134 -> 135 ;
136 [label="armed:r:gun <= 0.5\ngini = 0.4\nsamples = 35\nvalue = [34, 13]"] ;
135 -> 136 ;
137 [label="threat_level:attack <= 0.5\ngini = 0.4\nsamples = 18\nvalue = [18, 6]"] ;
136 -> 137 ;
138 [label="gini = 0.2\nsamples = 10\nvalue = [11, 1]"] ;
137 -> 138 ;
139 [label="gini = 0.5\nsamples = 8\nvalue = [7, 5]"] ;
137 -> 139 ;
140 [label="summer <= 0.5\ngini = 0.4\nsamples = 17\nvalue = [16, 7]"] ;
136 -> 140 ;
141 [label="gini = 0.3\nsamples = 7\nvalue = [8, 2]"] ;
140 -> 141 ;
142 [label="gini = 0.5\nsamples = 10\nvalue = [8, 5]"] ;
140 -> 142 ;
143 [label="gini = 0.4\nsamples = 5\nvalue = [4, 2]"] ;
135 -> 143 ;
144 [label="summer <= 0.5\ngini = 0.4\nsamples = 96\nvalue = [89, 36]"] ;
134 -> 144 ;
145 [label="fall <= 0.5\ngini = 0.4\nsamples = 60\nvalue = [50, 24]"] ;
144 -> 145 ;
146 [label="body_camera <= 0.5\ngini = 0.4\nsamples = 28\nvalue = [26, 9]"] ;
145 -> 146 ;
147 [label="gini = 0.4\nsamples = 26\nvalue = [23, 9]"] ;
146 -> 147 ;
148 [label="gini = 0.0\nsamples = 2\nvalue = [3, 0]"] ;
146 -> 148 ;
149 [label="armed:r:gun <= 0.5\ngini = 0.5\nsamples = 32\nvalue = [24, 15]"] ;
145 -> 149 ;
150 [label="gini = 0.5\nsamples = 12\nvalue = [9, 6]"] ;
149 -> 150 ;
151 [label="gini = 0.5\nsamples = 20\nvalue = [15, 9]"] ;
149 -> 151 ;
152 [label="child <= 0.5\ngini = 0.4\nsamples = 36\nvalue = [39, 12]"] ;
144 -> 152 ;
153 [label="threat_level:other <= 0.5\ngini = 0.3\nsamples = 35\nvalue = [39, 11]"] ;
152 -> 153 ;
154 [label="gini = 0.4\nsamples = 26\nvalue = [28, 10]"] ;
153 -> 154 ;
155 [label="gini = 0.2\nsamples = 9\nvalue = [11, 1]"] ;
153 -> 155 ;
156 [label="gini = 0.0\nsamples = 1\nvalue = [0, 1]"] ;
152 -> 156 ;
157 [label="young adult <= 0.5\ngini = 0.5\nsamples = 47\nvalue = [42, 22]"] ;
133 -> 157 ;
158 [label="threat_level:other <= 0.5\ngini = 0.4\nsamples = 40\nvalue = [40, 16]"] ;
157 -> 158 ;
159 [label="armed:r:gun <= 0.5\ngini = 0.3\nsamples = 30\nvalue = [31, 9]"] ;
158 -> 159 ;
160 [label="threat_level:attack <= 0.5\ngini = 0.3\nsamples = 9\nvalue = [11, 2]"] ;
159 -> 160 ;
161 [label="gini = 0.0\nsamples = 1\nvalue = [1, 0]"] ;
160 -> 161 ;
162 [label="gini = 0.3\nsamples = 8\nvalue = [10, 2]"] ;
160 -> 162 ;
163 [label="body_camera <= 0.5\ngini = 0.4\nsamples = 21\nvalue = [20, 7]"] ;
159 -> 163 ;
164 [label="gini = 0.4\nsamples = 20\nvalue = [20, 6]"] ;
163 -> 164 ;
165 [label="gini = 0.0\nsamples = 1\nvalue = [0, 1]"] ;
163 -> 165 ;
166 [label="flee:Car <= 0.5\ngini = 0.5\nsamples = 10\nvalue = [9, 7]"] ;
158 -> 166 ;
167 [label="armed:r:gun <= 0.5\ngini = 0.5\nsamples = 9\nvalue = [7, 7]"] ;
166 -> 167 ;
168 [label="gini = 0.4\nsamples = 6\nvalue = [6, 2]"] ;
167 -> 168 ;
169 [label="gini = 0.3\nsamples = 3\nvalue = [1, 5]"] ;
167 -> 169 ;
170 [label="gini = 0.0\nsamples = 1\nvalue = [2, 0]"] ;
166 -> 170 ;
171 [label="flee:Other <= 0.5\ngini = 0.4\nsamples = 7\nvalue = [2, 6]"] ;
157 -> 171 ;
172 [label="flee:Car <= 0.5\ngini = 0.4\nsamples = 6\nvalue = [2, 5]"] ;
171 -> 172 ;
173 [label="gini = 0.4\nsamples = 3\nvalue = [1, 2]"] ;
172 -> 173 ;
174 [label="gini = 0.4\nsamples = 3\nvalue = [1, 3]"] ;
172 -> 174 ;
175 [label="gini = 0.0\nsamples = 1\nvalue = [0, 1]"] ;
171 -> 175 ;
176 [label="threat_level:attack <= 0.5\ngini = 0.5\nsamples = 9\nvalue = [9, 6]"] ;
132 -> 176 ;
177 [label="gini = 0.5\nsamples = 5\nvalue = [3, 2]"] ;
176 -> 177 ;
178 [label="gini = 0.5\nsamples = 4\nvalue = [6, 4]"] ;
176 -> 178 ;
179 [label="fall <= 0.5\ngini = 0.3\nsamples = 28\nvalue = [8, 30]"] ;
129 -> 179 ;
180 [label="armed:r:gun <= 0.5\ngini = 0.3\nsamples = 22\nvalue = [6, 21]"] ;
179 -> 180 ;
181 [label="winter <= 0.5\ngini = 0.3\nsamples = 8\nvalue = [2, 8]"] ;
180 -> 181 ;
182 [label="body_camera <= 0.5\ngini = 0.4\nsamples = 6\nvalue = [2, 6]"] ;
181 -> 182 ;
183 [label="gini = 0.5\nsamples = 2\nvalue = [1, 1]"] ;
182 -> 183 ;
184 [label="gini = 0.3\nsamples = 4\nvalue = [1, 5]"] ;
182 -> 184 ;
185 [label="gini = 0.0\nsamples = 2\nvalue = [0, 2]"] ;
181 -> 185 ;
186 [label="young adult <= 0.5\ngini = 0.4\nsamples = 14\nvalue = [4, 13]"] ;
180 -> 186 ;
187 [label="summer <= 0.5\ngini = 0.5\nsamples = 7\nvalue = [4, 4]"] ;
186 -> 187 ;
188 [label="gini = 0.4\nsamples = 3\nvalue = [2, 1]"] ;
187 -> 188 ;
189 [label="gini = 0.5\nsamples = 4\nvalue = [2, 3]"] ;
187 -> 189 ;
190 [label="gini = 0.0\nsamples = 7\nvalue = [0, 9]"] ;
186 -> 190 ;
191 [label="threat_level:attack <= 0.5\ngini = 0.3\nsamples = 6\nvalue = [2, 9]"] ;
179 -> 191 ;
192 [label="gini = 0.4\nsamples = 2\nvalue = [2, 1]"] ;
191 -> 192 ;
193 [label="gini = 0.0\nsamples = 4\nvalue = [0, 8]"] ;
191 -> 193 ;
194 [label="winter <= 0.5\ngini = 0.3\nsamples = 256\nvalue = [246, 68]"] ;
0 -> 194 [labeldistance=2.5, labelangle=-45, headlabel="False"] ;
195 [label="young adult <= 0.5\ngini = 0.3\nsamples = 191\nvalue = [183, 47]"] ;
194 -> 195 ;
196 [label="child <= 0.5\ngini = 0.3\nsamples = 158\nvalue = [161, 30]"] ;
195 -> 196 ;
197 [label="threat_level:attack <= 0.5\ngini = 0.3\nsamples = 157\nvalue = [159, 30]"] ;
196 -> 197 ;
198 [label="body_camera <= 0.5\ngini = 0.2\nsamples = 55\nvalue = [59, 8]"] ;
197 -> 198 ;
199 [label="state:majority_white <= 0.5\ngini = 0.1\nsamples = 45\nvalue = [53, 3]"] ;
198 -> 199 ;
200 [label="flee:Not fleeing <= 0.5\ngini = 0.1\nsamples = 24\nvalue = [28, 2]"] ;
199 -> 200 ;
201 [label="gini = 0.0\nsamples = 3\nvalue = [5, 0]"] ;
200 -> 201 ;
202 [label="state:almost_all_white <= 0.5\ngini = 0.1\nsamples = 21\nvalue = [23, 2]"] ;
200 -> 202 ;
203 [label="summer <= 0.5\ngini = 0.2\nsamples = 8\nvalue = [7, 1]"] ;
202 -> 203 ;
204 [label="gini = 0.3\nsamples = 5\nvalue = [4, 1]"] ;
203 -> 204 ;
205 [label="gini = 0.0\nsamples = 3\nvalue = [3, 0]"] ;
203 -> 205 ;
206 [label="summer <= 0.5\ngini = 0.1\nsamples = 13\nvalue = [16, 1]"] ;
202 -> 206 ;
207 [label="gini = 0.2\nsamples = 6\nvalue = [6, 1]"] ;
206 -> 207 ;
208 [label="gini = 0.0\nsamples = 7\nvalue = [10, 0]"] ;
206 -> 208 ;
209 [label="armed:r:gun <= 0.5\ngini = 0.1\nsamples = 21\nvalue = [25, 1]"] ;
199 -> 209 ;
210 [label="summer <= 0.5\ngini = 0.1\nsamples = 13\nvalue = [14, 1]"] ;
209 -> 210 ;
211 [label="gini = 0.0\nsamples = 9\nvalue = [11, 0]"] ;
210 -> 211 ;
212 [label="gini = 0.4\nsamples = 4\nvalue = [3, 1]"] ;
210 -> 212 ;
213 [label="gini = 0.0\nsamples = 8\nvalue = [11, 0]"] ;
209 -> 213 ;
214 [label="summer <= 0.5\ngini = 0.5\nsamples = 10\nvalue = [6, 5]"] ;
198 -> 214 ;
215 [label="state:almost_all_white <= 0.5\ngini = 0.4\nsamples = 6\nvalue = [5, 2]"] ;
214 -> 215 ;
216 [label="gini = 0.3\nsamples = 4\nvalue = [4, 1]"] ;
215 -> 216 ;
217 [label="gini = 0.5\nsamples = 2\nvalue = [1, 1]"] ;
215 -> 217 ;
218 [label="gini = 0.4\nsamples = 4\nvalue = [1, 3]"] ;
214 -> 218 ;
219 [label="armed:r:unarmed <= 0.5\ngini = 0.3\nsamples = 102\nvalue = [100, 22]"] ;
197 -> 219 ;
220 [label="state:almost_all_white <= 0.5\ngini = 0.3\nsamples = 95\nvalue = [96, 19]"] ;
219 -> 220 ;
221 [label="body_camera <= 0.5\ngini = 0.3\nsamples = 72\nvalue = [74, 14]"] ;
220 -> 221 ;
222 [label="state:majority_white <= 0.5\ngini = 0.2\nsamples = 58\nvalue = [59, 10]"] ;
221 -> 222 ;
223 [label="flee:Other <= 0.5\ngini = 0.2\nsamples = 21\nvalue = [21, 2]"] ;
222 -> 223 ;
224 [label="gini = 0.2\nsamples = 20\nvalue = [20, 2]"] ;
223 -> 224 ;
225 [label="gini = 0.0\nsamples = 1\nvalue = [1, 0]"] ;
223 -> 225 ;
226 [label="flee:Not fleeing <= 0.5\ngini = 0.3\nsamples = 37\nvalue = [38, 8]"] ;
222 -> 226 ;
227 [label="gini = 0.5\nsamples = 8\nvalue = [5, 3]"] ;
226 -> 227 ;
228 [label="gini = 0.2\nsamples = 29\nvalue = [33, 5]"] ;
226 -> 228 ;
229 [label="fall <= 0.5\ngini = 0.3\nsamples = 14\nvalue = [15, 4]"] ;
221 -> 229 ;
230 [label="gini = 0.4\nsamples = 4\nvalue = [4, 2]"] ;
229 -> 230 ;
231 [label="armed:r:gun <= 0.5\ngini = 0.3\nsamples = 10\nvalue = [11, 2]"] ;
229 -> 231 ;
232 [label="gini = 0.4\nsamples = 6\nvalue = [6, 2]"] ;
231 -> 232 ;
233 [label="gini = 0.0\nsamples = 4\nvalue = [5, 0]"] ;
231 -> 233 ;
234 [label="summer <= 0.5\ngini = 0.3\nsamples = 23\nvalue = [22, 5]"] ;
220 -> 234 ;
235 [label="armed:r:gun <= 0.5\ngini = 0.3\nsamples = 19\nvalue = [18, 5]"] ;
234 -> 235 ;
236 [label="gini = 0.5\nsamples = 4\nvalue = [3, 3]"] ;
235 -> 236 ;
237 [label="flee:Foot <= 0.5\ngini = 0.2\nsamples = 15\nvalue = [15, 2]"] ;
235 -> 237 ;
238 [label="gini = 0.2\nsamples = 14\nvalue = [14, 2]"] ;
237 -> 238 ;
239 [label="gini = 0.0\nsamples = 1\nvalue = [1, 0]"] ;
237 -> 239 ;
240 [label="gini = 0.0\nsamples = 4\nvalue = [4, 0]"] ;
234 -> 240 ;
241 [label="flee:Foot <= 0.5\ngini = 0.5\nsamples = 7\nvalue = [4, 3]"] ;
219 -> 241 ;
242 [label="state:almost_all_white <= 0.5\ngini = 0.4\nsamples = 6\nvalue = [4, 2]"] ;
241 -> 242 ;
243 [label="gini = 0.5\nsamples = 5\nvalue = [3, 2]"] ;
242 -> 243 ;
244 [label="gini = 0.0\nsamples = 1\nvalue = [1, 0]"] ;
242 -> 244 ;
245 [label="gini = 0.0\nsamples = 1\nvalue = [0, 1]"] ;
241 -> 245 ;
246 [label="gini = 0.0\nsamples = 1\nvalue = [2, 0]"] ;
196 -> 246 ;
247 [label="body_camera <= 0.5\ngini = 0.5\nsamples = 33\nvalue = [22, 17]"] ;
195 -> 247 ;
248 [label="gender:M <= 0.5\ngini = 0.5\nsamples = 29\nvalue = [21, 14]"] ;
247 -> 248 ;
249 [label="gini = 0.0\nsamples = 2\nvalue = [2, 0]"] ;
248 -> 249 ;
250 [label="state:majority_white <= 0.5\ngini = 0.5\nsamples = 27\nvalue = [19, 14]"] ;
248 -> 250 ;
251 [label="state:almost_all_white <= 0.5\ngini = 0.5\nsamples = 10\nvalue = [5, 6]"] ;
250 -> 251 ;
252 [label="gini = 0.0\nsamples = 2\nvalue = [0, 2]"] ;
251 -> 252 ;
253 [label="flee:Other <= 0.5\ngini = 0.5\nsamples = 8\nvalue = [5, 4]"] ;
251 -> 253 ;
254 [label="flee:Not fleeing <= 0.5\ngini = 0.5\nsamples = 7\nvalue = [4, 4]"] ;
253 -> 254 ;
255 [label="gini = 0.0\nsamples = 1\nvalue = [0, 1]"] ;
254 -> 255 ;
256 [label="summer <= 0.5\ngini = 0.5\nsamples = 6\nvalue = [4, 3]"] ;
254 -> 256 ;
257 [label="gini = 0.5\nsamples = 3\nvalue = [2, 2]"] ;
256 -> 257 ;
258 [label="gini = 0.4\nsamples = 3\nvalue = [2, 1]"] ;
256 -> 258 ;
259 [label="gini = 0.0\nsamples = 1\nvalue = [1, 0]"] ;
253 -> 259 ;
260 [label="flee:Foot <= 0.5\ngini = 0.5\nsamples = 17\nvalue = [14, 8]"] ;
250 -> 260 ;
261 [label="summer <= 0.5\ngini = 0.5\nsamples = 15\nvalue = [12, 8]"] ;
260 -> 261 ;
262 [label="flee:Car <= 0.5\ngini = 0.5\nsamples = 9\nvalue = [8, 6]"] ;
261 -> 262 ;
263 [label="armed:r:gun <= 0.5\ngini = 0.5\nsamples = 8\nvalue = [7, 6]"] ;
262 -> 263 ;
264 [label="gini = 0.5\nsamples = 3\nvalue = [2, 3]"] ;
263 -> 264 ;
265 [label="gini = 0.5\nsamples = 5\nvalue = [5, 3]"] ;
263 -> 265 ;
266 [label="gini = 0.0\nsamples = 1\nvalue = [1, 0]"] ;
262 -> 266 ;
267 [label="flee:Not fleeing <= 0.5\ngini = 0.4\nsamples = 6\nvalue = [4, 2]"] ;
261 -> 267 ;
268 [label="gini = 0.0\nsamples = 2\nvalue = [0, 2]"] ;
267 -> 268 ;
269 [label="gini = 0.0\nsamples = 4\nvalue = [4, 0]"] ;
267 -> 269 ;
270 [label="gini = 0.0\nsamples = 2\nvalue = [2, 0]"] ;
260 -> 270 ;
271 [label="gini = 0.4\nsamples = 4\nvalue = [1, 3]"] ;
247 -> 271 ;
272 [label="threat_level:other <= 0.5\ngini = 0.4\nsamples = 65\nvalue = [63, 21]"] ;
194 -> 272 ;
273 [label="flee:Not fleeing <= 0.5\ngini = 0.3\nsamples = 44\nvalue = [44, 12]"] ;
272 -> 273 ;
274 [label="body_camera <= 0.5\ngini = 0.5\nsamples = 9\nvalue = [4, 7]"] ;
273 -> 274 ;
275 [label="flee:Foot <= 0.5\ngini = 0.5\nsamples = 8\nvalue = [4, 5]"] ;
274 -> 275 ;
276 [label="state:majority_white <= 0.5\ngini = 0.5\nsamples = 6\nvalue = [4, 3]"] ;
275 -> 276 ;
277 [label="gini = 0.0\nsamples = 1\nvalue = [1, 0]"] ;
276 -> 277 ;
278 [label="gini = 0.5\nsamples = 5\nvalue = [3, 3]"] ;
276 -> 278 ;
279 [label="gini = 0.0\nsamples = 2\nvalue = [0, 2]"] ;
275 -> 279 ;
280 [label="gini = 0.0\nsamples = 1\nvalue = [0, 2]"] ;
274 -> 280 ;
281 [label="body_camera <= 0.5\ngini = 0.2\nsamples = 35\nvalue = [40, 5]"] ;
273 -> 281 ;
282 [label="threat_level:attack <= 0.5\ngini = 0.2\nsamples = 31\nvalue = [36, 4]"] ;
281 -> 282 ;
283 [label="gini = 0.0\nsamples = 2\nvalue = [3, 0]"] ;
282 -> 283 ;
284 [label="armed:r:unarmed <= 0.5\ngini = 0.2\nsamples = 29\nvalue = [33, 4]"] ;
282 -> 284 ;
285 [label="state:almost_all_white <= 0.5\ngini = 0.2\nsamples = 27\nvalue = [31, 4]"] ;
284 -> 285 ;
286 [label="armed:r:gun <= 0.5\ngini = 0.1\nsamples = 20\nvalue = [24, 2]"] ;
285 -> 286 ;
287 [label="gini = 0.4\nsamples = 3\nvalue = [2, 1]"] ;
286 -> 287 ;
288 [label="state:majority_white <= 0.5\ngini = 0.1\nsamples = 17\nvalue = [22, 1]"] ;
286 -> 288 ;
289 [label="gini = 0.4\nsamples = 3\nvalue = [3, 1]"] ;
288 -> 289 ;
290 [label="gini = 0.0\nsamples = 14\nvalue = [19, 0]"] ;
288 -> 290 ;
291 [label="young adult <= 0.5\ngini = 0.3\nsamples = 7\nvalue = [7, 2]"] ;
285 -> 291 ;
292 [label="gini = 0.2\nsamples = 5\nvalue = [6, 1]"] ;
291 -> 292 ;
293 [label="gini = 0.5\nsamples = 2\nvalue = [1, 1]"] ;
291 -> 293 ;
294 [label="gini = 0.0\nsamples = 2\nvalue = [2, 0]"] ;
284 -> 294 ;
295 [label="gini = 0.3\nsamples = 4\nvalue = [4, 1]"] ;
281 -> 295 ;
296 [label="flee:Car <= 0.5\ngini = 0.4\nsamples = 21\nvalue = [19, 9]"] ;
272 -> 296 ;
297 [label="body_camera <= 0.5\ngini = 0.4\nsamples = 20\nvalue = [19, 8]"] ;
296 -> 297 ;
298 [label="young adult <= 0.5\ngini = 0.4\nsamples = 19\nvalue = [17, 8]"] ;
297 -> 298 ;
299 [label="state:almost_all_white <= 0.5\ngini = 0.4\nsamples = 15\nvalue = [14, 7]"] ;
298 -> 299 ;
300 [label="state:majority_white <= 0.5\ngini = 0.4\nsamples = 6\nvalue = [5, 2]"] ;
299 -> 300 ;
301 [label="gini = 0.0\nsamples = 1\nvalue = [1, 0]"] ;
300 -> 301 ;
302 [label="gini = 0.4\nsamples = 5\nvalue = [4, 2]"] ;
300 -> 302 ;
303 [label="armed:r:gun <= 0.5\ngini = 0.5\nsamples = 9\nvalue = [9, 5]"] ;
299 -> 303 ;
304 [label="gini = 0.5\nsamples = 6\nvalue = [5, 5]"] ;
303 -> 304 ;
305 [label="gini = 0.0\nsamples = 3\nvalue = [4, 0]"] ;
303 -> 305 ;
306 [label="gini = 0.4\nsamples = 4\nvalue = [3, 1]"] ;
298 -> 306 ;
307 [label="gini = 0.0\nsamples = 1\nvalue = [2, 0]"] ;
297 -> 307 ;
308 [label="gini = 0.0\nsamples = 1\nvalue = [0, 1]"] ;
296 -> 308 ;
}